Biases1:
-0.120617 1.005430 0.061476 -0.133900 -6.450448 -3.235982 0.054248 -0.227914 0.273606 3.343088 1.306008 1.676934 3.771060 -0.108789 0.223398 -0.586863 -10.850083 0.360103 0.103352 2.668358 3.235069 -0.881622 -2.009513 -0.223240 -0.217695 0.171920 -2.201219 -0.462360 0.130716 0.072510 -0.095478 1.976841 0.960754 1.719645 -0.613042 -0.339811 -2.429061 0.375221 0.265404 0.005487 -0.072529 -0.191158 1.851858 -0.302848 0.178156 -3.707149 -0.104700 0.043530 0.189922 0.203547 -0.098770 -1.015823 0.215667 1.442690 0.378262 0.159400 0.623596 -0.950008 -0.060729 -0.917810 -0.433309 0.121463 0.086994 0.100878 0.107875 1.031598 -0.486321 -0.716742 0.273606 -0.043885 0.252157 1.275391 0.094673 0.068451 -1.584227 -0.172775 0.000482 -0.261338 1.305288 2.322261 -0.847028 -0.082847 -0.165857 -0.007615 0.107813 -0.169016 -0.065410 3.667595 -0.391342 0.179326 0.392544 0.350954 -0.003256 0.161096 -0.966181 1.258632 -0.798511 -0.271678 0.648207 -0.094138 
Biases2:
0.137358 -0.264801 0.033635 -0.119565 -0.246654 0.262899 -0.224866 1.300314 0.346513 0.121596 0.003724 -0.267321 -0.235395 -0.275803 -0.165428 -0.332581 
Biases3:
-0.424698 5.891727 1.357212 2.471598 -0.032782 -3.741519 -1.974241 -3.752754 
