Weights1:
-1.596749 -2.345506 0.755333 0.850337 0.892475 1.656542 -0.040142 -0.111565 
-0.296914 1.225146 1.051791 0.038118 -0.218418 -0.010800 -0.728910 -1.397135 
1.705845 0.177908 -0.158552 0.026225 0.200345 0.829237 -1.699897 -1.068747 
-0.627366 -4.565999 0.355440 -0.233073 0.253838 4.829797 0.047895 -0.001013 
1.364306 -0.100396 0.111480 -0.063795 0.008698 -0.072325 0.020553 -0.056945 
-1.537938 0.228187 0.941980 0.005873 0.361109 -0.174347 0.056310 -0.065138 
1.935162 -3.867873 0.335420 0.090980 0.102745 0.014530 -2.418962 3.809082 
0.351411 1.221042 -0.051003 0.616266 0.056151 0.103230 -0.338813 -1.868981 
-1.143376 0.731957 0.465818 -0.494277 -0.103468 -1.058758 0.663871 0.768267 
-0.522048 -0.786346 0.352848 0.110021 -0.095691 -0.031434 -0.101262 -0.030774 
-0.009462 -3.196049 0.007798 -0.362796 -0.008271 -0.167854 0.023483 -0.166759 
-0.933932 0.662038 -0.416327 -0.539229 0.166347 0.136352 0.117451 0.193810 
-0.679388 -0.372166 0.466559 -0.803136 0.023285 -0.115291 0.083230 -0.081307 
2.300630 -0.344574 0.307440 0.315617 -2.616010 -0.110201 0.115001 0.103005 
3.944070 2.045339 -0.109502 0.389721 -0.001401 0.087201 -3.869955 -2.565984 
-0.973640 0.497140 1.093603 -0.603846 0.240404 0.050360 -0.078884 0.044025 
-0.009999 2.025483 -0.049216 0.191376 -0.037710 0.061655 -0.042384 0.055666 
3.514837 -1.753585 -3.583951 1.894471 -0.016334 -0.112368 0.019215 -0.123630 
2.891807 -2.305858 -0.214288 -0.526993 -2.746905 2.936167 -0.032645 -0.065318 
0.042669 0.312616 -0.120744 -0.761480 -0.075564 -0.115414 -0.109503 -0.057205 
0.530464 -0.289479 -0.215839 -0.909342 0.036049 -0.153420 0.007479 -0.190584 
1.160601 1.119153 0.022189 -1.619249 -0.447724 0.313538 -0.554703 0.359008 
-0.433942 -1.254852 0.523610 0.666400 -0.074115 0.156000 -0.131969 0.133217 
1.340445 -2.074756 -0.852039 0.398974 -0.466730 1.833295 0.012701 -0.116265 
-1.185465 -4.411986 0.346833 -0.294244 0.039048 -0.029778 0.858676 4.763854 
5.714686 0.024503 -5.677536 -0.013404 -0.043681 -0.027236 -0.025955 -0.040101 
1.069691 -0.481419 -0.941179 0.121994 -0.312075 0.202723 -0.028659 0.092817 
0.378780 0.387833 -0.571046 -0.391887 0.005271 -0.146810 -0.066058 -0.077155 
1.057464 1.046564 0.617289 0.227556 -1.706357 -1.412351 0.060692 0.076548 
-0.614811 1.437444 -0.564898 0.462310 0.011057 0.101084 1.188024 -2.015769 
2.720374 -1.971118 0.458856 -0.315738 -1.435119 1.339313 -1.648997 0.939992 
0.636603 -0.759615 -0.512694 -0.268178 -0.040727 0.075631 0.018358 0.050746 
2.352825 -0.097894 -1.779682 0.536062 -0.377787 -0.260660 -0.511969 -0.278055 
0.283607 0.121347 -0.633357 -0.308108 -0.023053 -0.136326 -0.032310 -0.031905 
-0.037690 0.381582 0.166685 -1.019831 0.003217 -0.019306 -0.114984 0.072441 
1.181214 -1.489345 0.678884 1.008445 0.102199 -0.019975 -1.899111 0.576267 
-0.212106 0.029049 0.737867 0.008909 0.022444 -0.023445 0.047470 0.011889 
1.288631 -0.705254 -0.276697 -0.401370 -1.076304 1.294264 -0.030358 -0.245334 
-0.357686 -0.346143 0.324961 0.349249 -0.057746 -0.005368 0.034722 0.072297 
-2.314793 3.159653 0.338346 0.357921 0.045187 0.084664 1.994139 -3.627683 
1.360977 -0.601268 -0.183307 0.000415 -1.495852 -1.124823 0.401913 1.669050 
0.815809 0.102632 -0.254657 0.272592 0.793526 -0.822317 -1.314857 0.491662 
-0.571492 0.054141 0.507297 -0.312768 -0.055818 -0.083798 0.082062 0.021160 
-2.451188 0.755118 -0.120119 0.691388 -0.101189 0.112974 2.738101 -1.452094 
0.226604 -0.475754 -0.511110 0.621323 -0.031324 0.046165 0.077174 -0.074161 
0.316468 -0.483265 0.686082 0.603065 0.127151 0.025514 0.133610 0.100560 
0.398693 -0.157044 0.547200 -0.262084 -0.914845 -0.886842 -0.023363 1.368936 
-1.577882 -0.591492 0.141495 0.080231 1.255739 -1.292905 0.118867 1.807853 
-0.115904 4.397128 0.484569 0.175832 -0.452402 -4.624485 0.051799 -0.005162 
0.465913 -1.925469 -0.332566 2.053547 -0.210338 0.075929 -0.258094 0.057388 
-1.442634 0.851927 0.151896 0.047594 0.355413 0.744538 0.983621 -1.681187 
0.228582 0.653177 -0.424700 -0.295611 -0.114286 0.092914 0.049481 0.039274 
3.420424 2.490376 0.329857 -0.233455 0.063315 -0.040751 -3.863328 -2.269732 
-3.151024 -0.001613 -0.483505 -0.002282 -0.202168 0.019012 -0.199791 0.029883 
3.398939 2.251680 -0.107557 0.445851 -3.374461 -2.825950 0.004316 0.042003 
-0.607895 -0.540905 1.856436 0.224293 -0.735351 0.268563 -0.510850 0.023485 
0.934781 0.508720 -0.994358 -0.856804 -0.093254 0.095386 0.109199 0.036566 
0.056353 2.354655 0.049466 -2.409937 -0.045533 0.200236 0.041112 0.145505 
-0.558535 -1.030479 0.533698 1.003165 -0.251165 0.305122 0.250339 -0.232331 
0.037206 -2.892111 0.120152 2.813382 0.139466 0.022574 0.101143 0.047720 
0.221839 -0.105936 -0.555943 0.326508 -0.080424 -1.035729 0.493601 0.921091 
2.797968 0.553247 -0.464295 -0.495610 0.068390 0.014575 -2.457255 -0.091869 
-2.841386 -1.733317 -0.368569 -0.178188 1.536379 1.111740 1.656892 0.779141 
1.346289 2.245754 -0.784878 -0.840767 0.069457 0.096770 -0.584251 -1.554062 
-1.537152 -0.706141 -0.520687 -0.418185 -0.060954 -0.040738 2.059778 1.186138 
-0.486068 0.130893 0.544487 -0.552833 -0.085415 -0.130186 -0.010304 -0.000385 
-0.241596 -0.190096 0.384209 0.564459 0.872523 -0.651140 -0.932429 0.352155 
0.651431 -0.004579 0.190179 -0.497369 0.187166 0.070251 -0.668820 0.296184 
0.320810 -1.893893 0.114667 0.103728 0.810734 0.021858 -1.255979 1.695861 
-1.522293 -3.060386 1.642207 3.073127 -0.075636 0.011863 -0.066400 0.010256 
0.675644 1.347604 -0.072939 -0.222052 -1.678839 -1.249096 0.961569 0.152529 
-1.278199 0.363249 1.994191 -0.079916 -0.704779 -0.120572 -0.544273 -0.049850 
-0.845642 1.647547 -0.747588 -1.140990 1.693036 -0.717028 -0.009388 0.077153 
-1.628155 3.553695 1.714908 -3.643137 -0.061742 0.038505 -0.030220 0.020041 
0.459408 0.661910 -0.441187 -0.568137 -0.024267 -0.158618 0.064076 -0.144719 
0.513216 -0.630129 -0.134853 1.860266 -0.184170 -0.703623 -0.151839 -0.561679 
-0.271921 -3.599823 -0.097778 -0.344794 0.109969 2.010488 0.272956 1.919720 
0.041141 0.577992 -0.859659 0.282490 0.087173 0.100086 -0.077266 0.038874 
-0.029615 -0.385810 -0.561728 0.580629 -0.218757 0.046333 -0.085583 0.009931 
0.671785 -0.688338 -0.433049 0.006495 0.101594 -0.267677 0.074772 -0.267836 
0.237053 1.127950 -0.669951 -0.696171 -0.030196 0.246184 -0.044988 0.174493 
-3.936177 2.054380 -0.251609 -0.073595 -0.020863 0.004064 4.266203 -2.018951 
-0.077195 4.388606 0.062026 -4.359392 0.073152 -0.028093 0.036329 -0.023717 
-2.856771 -0.336923 0.105840 0.526904 2.895221 -0.335791 -0.080171 0.073751 
-0.859492 -0.352840 0.356075 0.773516 -0.109047 0.139608 -0.142801 0.125672 
-0.262567 -3.993387 -0.519128 -0.130654 -0.046091 -0.037510 0.868903 4.222574 
5.023586 -0.192896 -0.089395 0.015815 -4.968579 0.183678 0.056366 0.007462 
-0.801125 -0.690025 -0.473661 0.540062 0.163163 -0.103539 -0.016029 -0.069955 
-3.303494 -3.003234 -0.362546 0.168835 3.795474 2.896600 -0.073919 0.017089 
-0.991715 1.567624 -0.603313 0.142884 1.761566 -1.770929 -0.203825 0.040861 
-0.033519 -0.829587 -0.023584 0.419733 -1.300253 0.889296 1.331652 -0.628946 
-0.358992 -1.302016 0.164871 -0.466892 0.132131 1.943470 0.015420 -0.297762 
-3.319494 -1.638832 3.370699 1.800346 -0.025526 -0.060496 -0.007441 -0.092201 
0.777654 1.324673 0.065206 -0.266491 0.913302 -0.034713 -1.832877 -1.011063 
-0.494442 -0.188093 0.367886 0.337382 -0.100992 0.205097 0.194485 -0.118815 
0.288415 -0.582729 -0.458746 0.064694 -0.013969 0.047701 0.197798 -0.137413 
-0.030427 -0.263604 -0.011848 0.707864 -0.015828 -0.169366 0.093324 -0.207676 
0.392461 0.071646 0.687477 0.418986 -1.011027 0.944948 -0.056990 -1.342647 
0.412687 0.524543 -0.572773 -0.540373 0.484014 0.471808 -0.458684 -0.568195 
-3.121098 3.355851 -0.315309 0.033978 3.565068 -3.439129 -0.033672 0.020021 
Weights2:
1.590125 0.462513 0.134494 0.466620 0.144549 -0.982533 -0.966879 0.433016 -0.610489 -0.223744 0.435917 0.058345 -0.124217 0.140519 -1.154144 0.149079 -0.645798 0.849803 -0.179078 0.101628 -0.065783 0.540140 -0.258282 -0.974742 0.379573 -0.958165 0.729501 0.299566 1.567099 -0.961311 0.937112 -0.017667 -1.175216 0.289753 -0.076788 0.973203 -0.461862 -0.017810 -0.244891 1.938110 0.871843 0.776668 -0.251086 -0.955786 0.227940 -0.467318 -0.728069 -0.005156 2.136763 -0.524229 -0.588202 0.266267 1.014339 0.278965 -0.724687 0.430874 -0.431668 0.134240 -1.044237 0.162425 0.427824 -1.274936 0.893441 -1.061349 -1.392349 -0.293295 -1.031012 0.440287 1.529058 -2.996980 0.057112 0.475687 -0.667037 0.133755 0.281813 -0.383738 1.507869 0.183195 0.353965 -0.027276 0.508992 2.297740 0.236662 0.361059 -0.141952 -2.096086 -0.250863 -0.484238 -1.256411 -1.878722 0.642798 0.575735 -0.255721 -0.075624 -0.241016 0.342139 -0.027605 -0.870661 0.320227 2.007295 
-0.556455 0.446497 0.176780 0.057765 0.116080 -0.186089 -0.537144 -0.243887 -0.166361 -0.175104 -0.298869 0.353897 0.167031 -0.299517 -0.273126 0.358913 0.289796 0.777668 -0.488316 0.283798 0.252489 1.073792 -0.179521 -0.359359 0.350920 1.459225 0.070765 0.108337 0.035443 -0.091857 0.103868 -0.106392 -0.135340 0.001060 0.289303 -0.162692 -0.003395 0.440487 -0.179785 0.377321 0.318082 0.163686 0.099078 -0.064811 -0.492748 -0.246674 -0.099202 -0.416292 0.387746 -1.320494 -0.513500 0.226225 -0.313097 -0.137634 -0.442233 0.607497 -0.058761 1.890876 -0.446910 -2.244476 0.047600 0.241807 -0.243238 0.344484 -0.042447 0.293849 -0.527989 0.314108 -0.259686 -0.582451 -0.253294 0.521413 0.331884 0.289479 0.224842 -0.666506 0.092871 -0.086260 -0.347000 -0.388442 0.428683 0.589566 2.955974 -0.187533 -0.084274 -0.229990 -0.348136 -0.515734 0.156331 -0.145671 -0.071240 0.202634 -1.064214 -0.302986 -0.085249 -0.222417 -0.491435 -0.345052 0.198827 0.671904 
1.006617 0.541930 0.668421 0.662680 0.645719 -0.961435 -1.261845 -0.164218 0.000255 -0.276021 -0.384027 -0.086765 -0.039536 0.622828 -2.254400 0.122396 0.177254 -0.251042 -1.275670 -0.499107 0.084549 0.264488 -0.256637 -0.424161 0.851527 3.977559 0.954999 0.314855 1.306735 -0.771014 1.173149 -0.083506 -0.366631 0.507748 -0.510410 0.880548 -0.593195 0.396086 -0.385595 1.419195 0.863238 0.529015 -0.732420 -0.870137 0.163473 -0.084952 -0.372177 -0.622226 2.546112 -0.302190 -0.904100 0.216939 1.386158 -0.251368 -2.071275 0.285256 0.571989 0.993562 0.087112 -0.827234 0.324100 -0.713023 -0.177706 -1.149839 -1.278757 -0.401545 -0.367843 0.023586 1.446596 -0.626245 -0.223765 -0.249778 -0.760169 0.270733 0.201461 -0.380190 1.230838 0.287153 0.422711 0.109461 0.198977 1.797063 0.764716 -0.615313 -0.398083 -2.743398 -1.596582 0.005839 -1.285358 -1.200967 0.648660 0.514809 -1.560152 -0.295228 -0.402297 0.333832 0.399254 -0.740299 0.465663 1.513395 
-0.210349 0.343858 0.691970 -0.011227 0.182219 -0.339993 0.790475 0.060002 -0.444486 -0.113207 -0.009347 -0.335898 -0.421663 -0.265784 3.090422 -0.061119 -0.057940 -0.090215 -0.084382 -0.116167 0.049179 -0.083155 -0.020012 -0.011403 -0.212222 0.773595 0.228783 0.060716 0.005094 -1.193967 0.539074 0.100856 0.441087 0.066140 -0.131190 0.034385 -0.068730 0.000769 -0.131799 -1.843367 0.059142 0.289883 -0.254082 -1.718925 0.191368 0.078232 0.245594 0.178803 0.138144 0.170891 -0.785131 0.084566 1.785634 -0.072857 -0.151755 0.172920 0.225384 -0.074095 -0.010603 -0.016331 -0.007268 1.582748 -0.830310 0.604638 -1.646576 -0.259554 -0.030615 0.202665 0.149809 -0.266305 -0.338846 -0.094149 -0.066347 -0.249661 0.073840 0.265675 0.100833 0.062749 0.182396 0.190244 0.026043 -2.351417 0.096314 0.163001 -0.225068 0.013045 0.200848 -0.017970 0.182144 -0.158185 -0.182659 0.291589 0.050117 0.137798 -0.091021 0.051191 0.178780 0.197758 0.326353 0.164052 
0.274642 -0.142008 0.241725 0.365651 0.193609 -0.077543 -0.077375 0.262942 -0.419225 0.254467 0.407878 -0.482029 -0.173564 0.078400 -0.093396 -0.074706 -0.325492 1.136612 -0.085910 -0.448713 -0.303309 -0.961552 0.202639 0.477072 0.454850 1.676754 0.261593 -0.241675 0.088324 0.052988 0.044487 0.026719 0.098897 -0.212882 -0.286695 0.340265 -0.012687 -0.125013 0.250671 -0.141533 0.222579 0.391307 -0.128637 0.155975 0.347634 0.406822 -0.336241 -0.135015 -0.234067 1.700364 -0.161406 -0.426116 -0.476622 -0.221106 -0.214961 0.410549 -0.495901 -2.129392 0.565811 2.462396 0.507193 -0.146665 -0.060774 -0.408076 -0.061651 -0.186058 0.047149 -0.191953 -0.239675 0.232058 -0.031726 0.184601 -0.214325 -0.871397 -0.255322 1.189805 0.088920 -0.167055 0.275234 0.075204 -0.799429 0.043926 -3.590495 0.242524 0.410902 0.073341 -0.004768 0.434686 0.304161 0.046609 0.070649 -0.241950 -0.946824 -0.130562 0.169589 0.130034 0.498400 -0.041284 -0.132788 0.179793 
-0.572334 -0.330358 -1.067914 -1.456527 -0.085586 0.067827 -1.211356 -0.838511 -0.083373 0.279891 -0.286978 0.286255 -0.389461 -0.425468 0.370632 -0.693782 0.091404 2.770912 1.258041 -0.362215 -0.036688 0.687778 0.708273 -0.634537 -1.621528 0.271489 0.038667 -0.232264 -0.905824 -0.695974 -0.367594 0.533289 -0.493640 -0.265658 -0.449140 -0.795148 0.016709 0.787369 0.475704 -0.850685 -0.415654 0.089822 -0.238913 -1.383061 0.062130 0.096893 -0.254166 1.528246 -0.685595 -0.940888 -0.041674 -0.309547 2.327729 0.033325 0.096448 -0.238015 -0.544012 0.838901 0.383958 -1.177886 0.049975 1.296185 1.339146 0.797881 0.545825 -0.467428 0.570766 -0.191779 0.145380 1.499220 -1.196403 -0.643038 0.996442 0.635038 -0.386742 -0.026863 0.616023 0.370061 0.190557 0.570245 -0.022816 0.067498 1.201629 -1.800568 0.254024 0.591848 -0.675962 -0.270902 -2.589843 -0.406220 0.640887 1.210651 0.376420 -0.865095 0.417526 0.417158 0.401300 0.704096 -0.665543 0.859527 
-1.087640 0.395315 -0.073336 0.720470 -0.078678 -0.214922 -1.109357 -1.147471 -1.033579 0.686239 -0.438825 0.196473 -0.060025 -1.701803 -1.681031 -0.447248 0.181355 0.487986 -0.406648 -0.402419 -0.323778 0.570545 0.610734 -0.785435 0.705204 0.055758 0.239706 -0.155199 -0.670743 -1.123902 1.541333 0.172128 -0.849749 -0.303704 -0.493745 -0.606587 -0.003187 1.366170 0.281622 1.406323 1.017444 0.726632 -0.408853 -1.061097 0.337436 0.055563 -0.571141 -0.275513 1.726835 -0.381462 -1.543204 -0.522700 1.014471 0.210674 -2.195673 0.541123 -0.807836 0.528788 -0.133659 -1.033515 0.293074 0.437777 -1.309662 1.067669 1.537879 -0.404632 0.579358 -0.041057 0.732516 -0.192495 -0.373442 0.496444 0.703322 -1.033518 -0.291754 -0.425279 0.445717 -0.327566 0.244770 0.071773 -0.238721 2.566228 1.149180 -1.503073 0.230906 -1.365125 -0.619565 -0.193778 -1.036012 -1.209877 1.016970 1.279181 2.892427 0.001578 0.307878 0.186072 0.270956 0.497881 -0.643648 2.891964 
0.097148 0.038612 0.302379 -0.661345 -0.106840 -0.070860 -1.237782 -0.191512 -0.298275 -0.237820 0.084648 -0.291505 -0.001781 -0.014340 -1.543302 0.029648 0.032166 0.519632 -0.641770 0.067065 -0.076925 0.357322 0.690055 -0.103811 -0.576770 -1.258553 0.098125 0.029111 -0.059255 0.087127 1.798664 0.282686 -0.317494 -0.052599 0.224316 0.325251 -0.061307 0.457586 0.024852 0.775486 0.682372 -0.030530 -0.100096 0.202290 -0.015187 0.192719 0.436415 -0.137981 1.349741 -0.081131 -0.691695 0.186136 0.849061 0.140535 -1.192218 0.456165 -0.055862 0.589933 -0.091806 -0.579556 -0.160179 -0.244097 -0.253041 -0.090391 0.111590 0.047482 -0.051660 0.214592 0.719697 -0.158301 -0.418261 0.492798 -0.139887 -0.630659 0.271665 -0.269573 1.452070 -0.059706 0.173924 0.113192 0.293480 1.955864 0.832132 -0.606276 0.449243 -1.305542 -1.412931 -0.039137 -0.976181 0.358030 0.251962 0.372121 0.101229 -0.177034 0.063516 0.036764 -0.174868 0.014325 0.083940 1.527474 
-1.044728 -0.111363 1.234737 1.031982 -0.134422 -0.499806 -1.128842 -1.024208 0.130220 0.422411 0.548616 0.033791 -0.338985 0.161300 -2.188890 0.369678 -0.627434 -0.778171 -0.610303 -0.515037 -0.207027 0.424998 0.435059 -0.549898 1.103196 -0.303719 0.711751 0.019961 -0.352279 -0.778357 1.124360 0.109789 -0.947362 0.228412 -0.710502 -1.432869 -0.460735 1.238751 0.184568 0.914322 1.008261 0.876189 -0.505826 -1.059844 0.272578 0.699173 -0.462145 -0.561807 1.931737 0.515942 -1.071089 -0.349402 0.852548 0.635283 -2.222023 0.261272 -0.220530 -0.360180 0.695400 0.854666 0.131085 0.263744 -1.172647 0.677484 0.710089 -0.361785 0.708017 -0.044189 0.631152 0.915208 -0.090785 1.116006 1.404887 0.001759 -0.223160 -0.081138 0.423882 0.156054 0.738324 0.019695 -0.620379 1.383421 -2.905132 -1.429188 0.181262 -1.798290 -1.728277 0.095163 -0.859732 -1.192616 0.768204 1.156101 1.017487 0.036816 0.077793 0.426122 0.704221 -0.301865 0.050580 1.428060 
0.438033 0.479859 0.335673 -0.285812 -0.340217 -0.045239 -0.419966 -0.080574 0.018427 0.324177 0.259895 0.109641 0.297151 -0.179902 0.033336 0.584910 -0.219188 -0.522528 -0.162331 -0.013948 -0.001292 0.388379 0.306608 -0.884211 -0.369661 -3.605616 -0.065832 -0.229151 -0.018056 -0.048860 -0.080095 -0.125769 -0.996951 -0.203511 -0.039250 -0.125837 0.123639 0.040847 0.255596 0.359462 0.331885 0.249915 0.257195 -0.290812 -0.276797 0.006754 -0.169402 0.214095 0.284705 -0.170933 0.111300 -0.176559 0.001188 0.358430 -0.026438 1.201489 -0.294934 -0.212221 0.111236 0.426484 -0.023897 -0.231355 0.118016 -0.204402 0.077635 0.326977 0.588626 -0.084322 0.571482 0.756271 -0.006484 1.303690 -0.107998 -0.626564 -0.325842 -0.659954 0.591743 -0.312554 -0.073964 -0.200288 0.134445 0.550436 -1.029769 -0.099478 0.279918 -0.106096 -0.556514 -0.073448 -0.306302 -0.253636 0.649402 0.083214 0.860362 -0.062851 0.223268 -0.111957 -0.032191 0.346614 -0.344952 0.704493 
-0.024039 -0.392239 -0.820967 -0.429673 -2.618864 0.787070 0.343776 0.272263 0.305995 0.763532 -1.645103 0.647810 1.704100 -0.570445 2.201842 -0.008809 1.628904 -0.962420 0.806698 0.215749 -0.332987 0.008156 -0.085854 0.442026 -0.830177 0.010379 -0.529038 -0.046250 -0.433768 0.421777 -0.893493 -1.164612 0.702817 -0.041988 0.086972 -0.233448 -0.057842 -0.902537 0.047234 -0.965791 -0.780814 -0.666955 0.421315 0.595567 -0.030306 -0.160997 0.740741 0.250525 -1.352707 0.285772 0.536260 -0.206770 -1.303576 2.687479 2.091699 -0.486103 0.335796 0.020989 -0.009244 0.332144 -0.549969 -0.101577 0.420764 0.032686 0.291724 0.349981 -0.131569 -0.128762 -0.534037 -0.042620 0.055979 -0.484523 0.157140 0.316246 0.029360 0.369593 -0.467628 -0.509088 -0.439725 -1.089055 -0.456360 -1.437549 0.047284 1.492085 -0.579221 1.545848 2.312671 -1.179719 1.284444 1.019894 -0.466770 -0.392570 -0.006919 0.189945 0.191553 -0.800682 -0.121885 0.387962 0.126574 -1.350675 
-0.508112 -0.526763 -0.307205 -1.953526 0.075597 0.818940 -0.884463 0.065971 0.385592 0.087456 -0.648000 0.753583 -0.091792 -0.837270 0.684260 -0.386195 0.513103 -0.289790 0.214157 -0.332188 0.388304 0.389092 0.338610 1.460577 -2.245560 1.336987 -0.932974 -0.352446 -1.371551 1.435951 1.008005 -0.030770 1.140467 -0.625030 0.021838 -0.854806 0.595395 0.185222 0.253120 -0.635289 -0.048724 -0.632147 0.246385 0.819800 -0.423168 -0.194379 0.856053 0.541740 -0.957715 -0.159832 -0.570556 -0.362477 1.333081 -0.432030 0.688325 -0.365370 -0.206262 -0.099063 0.272623 -0.524073 -0.930166 1.608248 0.730815 0.444846 0.796923 0.178629 0.746142 -0.299958 0.181288 -0.466028 -1.457613 -0.190736 0.213497 2.520692 -0.361606 -0.767043 1.077831 -0.399995 -0.592899 -0.390429 0.034183 -0.322710 -0.253955 -0.716265 -0.058365 0.859776 0.028035 -0.062578 -1.305993 1.775155 0.295557 -0.442128 0.757830 -1.408677 0.304878 -0.381608 -0.192221 0.185951 -0.564069 0.648458 
-0.114667 0.492851 0.591080 2.428326 1.321014 -0.300489 1.822750 0.920574 0.036760 -1.058952 -2.823866 1.170414 0.076309 0.776116 -0.752198 -0.245666 2.698917 0.666164 -1.576623 -0.217078 0.879549 -0.167065 -0.497528 0.030731 2.325698 0.134480 -0.047748 0.200223 0.513754 -0.167981 0.160300 0.423164 0.076278 -0.013994 -0.221940 0.559456 0.035414 -0.224368 -0.458554 1.152973 0.308177 0.231119 -0.112748 0.805716 0.002177 -1.191614 -0.166739 -1.120204 0.615452 0.002685 -0.018367 0.335175 -1.970801 -1.574815 -0.654222 0.470281 -0.012849 -0.280342 -0.224963 0.093520 0.175737 -0.827124 -1.852565 0.023970 -0.565702 0.130103 -0.730208 0.444337 -0.824557 -0.980980 0.747144 0.276055 -0.682686 0.728779 0.391877 0.563146 -0.961177 0.528793 -0.145307 0.169920 0.388318 -0.194293 -0.158329 1.204027 -0.766495 -0.253034 -0.470705 -1.262270 2.199612 -0.246632 -0.596888 -1.203408 -0.545376 0.721533 -0.377724 0.129708 0.169175 -0.622305 0.227931 -1.168470 
0.906896 0.685807 0.776932 0.801374 -0.186638 0.048977 0.835353 0.876449 0.552202 -0.217341 0.113281 -0.024799 0.021507 0.648758 -0.644815 0.606023 0.072959 -2.738606 -1.094939 0.451845 0.239133 -0.774658 -0.606277 -0.060430 0.999508 -0.896658 -0.076929 0.235505 0.621854 0.737426 0.861437 -0.382969 0.309989 0.196765 0.354760 0.901768 -0.025972 -0.679761 -0.205818 0.570059 0.135425 -0.331505 0.219095 0.625139 -0.389635 -0.090965 0.696695 -0.857090 -0.510738 0.019800 0.211034 0.069765 -1.277535 0.187609 -0.299157 0.081067 -0.521566 -0.012564 0.423823 -0.193651 -0.591852 -0.812173 -0.724159 -1.217064 -0.630864 0.397555 -0.351511 0.103772 -0.043646 0.203690 0.719582 0.497867 -0.822579 1.139038 0.419082 0.734147 -0.503639 -0.124246 -0.161960 -0.298727 -0.463681 0.193960 0.778862 0.588418 0.079462 0.423057 -0.896590 -0.097451 1.273087 0.046434 -0.643785 -1.035071 0.992048 0.661228 -0.270560 -0.429849 -0.137709 -0.485588 0.109539 -0.717041 
0.644740 0.426927 1.102604 0.893651 -0.670766 -0.261929 1.176805 0.746677 0.193645 -0.090070 -0.798899 -0.042229 -0.065130 1.492102 -1.014875 -0.067229 0.848638 0.287172 -1.125137 0.664243 0.358876 -0.623783 -0.564197 0.057098 0.870274 -1.258866 0.118494 0.478972 0.714889 0.388155 -0.399135 -0.080601 -0.957559 0.405906 0.477016 0.253713 -0.439186 -0.149490 -0.292630 0.461920 0.340012 0.149381 -0.087035 0.949596 -0.650558 -0.540426 -0.398671 -0.550881 -0.037176 -1.384732 0.141264 0.177507 -1.320373 0.948370 -0.597596 0.356825 -0.740699 0.373347 0.358019 -0.360019 0.156541 -0.460976 -1.074505 -0.665638 -1.092534 0.212220 -0.442166 0.492962 -0.064600 -0.013241 1.055825 1.262095 -0.460661 2.856192 0.490217 0.382487 -0.498818 0.410471 -0.556753 -0.219522 -0.219979 -0.911194 1.186135 0.527934 0.212623 0.052946 -1.259743 -0.460138 1.254382 -0.056185 -0.510175 -0.992363 0.692392 0.951339 -0.337639 -0.249221 -0.522919 -0.332047 0.067043 -1.486005 
0.904930 0.366545 0.977549 3.153950 0.531407 -0.963934 2.762699 0.438085 0.160294 -0.681476 0.045596 0.023769 0.087256 2.146763 -1.097875 -0.279715 0.257997 -0.247613 -2.749518 0.640515 0.057045 -0.241170 -0.857924 -0.597978 2.878047 5.305672 0.515124 0.699142 1.705914 -0.517870 0.120423 -0.067098 -0.338225 0.662668 0.468279 0.670130 -0.663077 0.117843 -0.800291 2.611065 0.151920 0.370588 -0.760502 1.213466 0.164416 -0.594895 -0.689542 -1.249365 0.616102 -0.464771 -0.339325 0.471661 -1.598883 -0.215202 -0.890868 0.277721 0.032920 -0.870759 -0.023707 0.584484 0.387901 -0.982389 -0.936728 -0.884500 -1.852251 -0.457788 -0.462472 0.908220 -0.932210 0.574236 1.416726 -0.134967 -0.523775 -0.861192 0.753052 0.331492 -1.441020 0.389251 -0.109040 -0.190493 0.099081 -0.545506 -1.157235 0.766304 -0.625798 -0.795805 -1.524377 -0.069651 1.569889 -1.265552 -0.754736 -1.200722 -0.114047 1.260724 -0.893983 -0.004126 -0.643141 -0.587949 0.158233 -1.822774 
Weights3:
-5.150151 -2.754550 -0.600760 -0.948518 -3.061651 1.084949 -0.076431 -0.018530 1.501597 1.713544 2.623511 4.139760 -3.365653 1.660561 3.307079 0.327994 
1.711401 0.405733 1.117871 1.923087 3.220293 -4.027271 -0.591691 -2.249822 2.110519 -0.305256 1.861276 -2.120582 -4.250459 1.595418 -3.768158 -7.050426 
-0.516773 -1.515760 -2.642741 -0.487704 1.398241 3.356127 4.862361 0.504397 -0.268974 2.541676 -2.292773 -1.653618 -3.779102 -3.556113 -1.639106 2.128212 
-2.984760 -2.407059 5.312754 -1.662732 -0.203210 0.824296 -3.922297 2.261796 4.988271 -2.322630 -5.114302 0.398338 -1.238484 0.304893 0.001284 -0.231453 
5.057863 2.698380 0.688127 0.990465 3.129786 -1.108212 0.080375 -0.192172 -1.464849 -1.653191 -2.518756 -4.048463 3.268573 -1.573706 -3.335889 -0.435108 
-0.898449 0.196417 -0.520681 -2.211396 -3.002238 3.479819 1.530157 -2.788159 -1.496355 0.943478 -2.416072 3.024557 3.974007 -1.461391 3.760459 6.858285 
0.302717 1.475269 2.454635 0.418125 -1.435949 -3.328048 -4.998518 0.097378 0.248936 -2.586787 2.211851 1.607638 3.749397 3.531212 1.612865 -2.032557 
2.293928 1.762270 -6.003223 1.940741 0.058113 -0.347263 3.118455 2.585327 -5.395226 1.515787 5.425004 -1.392160 1.364031 -0.458553 0.001813 0.228944 
